digraph Tree {
node [shape=box, style="filled, rounded", color="black", fontname="helvetica"] ;
edge [fontname="helvetica"] ;
0 [label="x[0] <= 0.455\nsquared_error = 1.834\nsamples = 100\nvalue = 2.311", fillcolor="#f3c5a4"] ;
1 [label="x[0] <= 0.237\nsquared_error = 0.484\nsamples = 52\nvalue = 1.237", fillcolor="#fae9dc"] ;
0 -> 1 [labeldistance=2.5, labelangle=45, headlabel="True"] ;
2 [label="squared_error = 0.099\nsamples = 24\nvalue = 0.563", fillcolor="#ffffff"] ;
1 -> 2 ;
3 [label="squared_error = 0.09\nsamples = 28\nvalue = 1.815", fillcolor="#f6d6be"] ;
1 -> 3 ;
4 [label="x[0] <= 0.738\nsquared_error = 0.695\nsamples = 48\nvalue = 3.474", fillcolor="#eb9f68"] ;
0 -> 4 [labeldistance=2.5, labelangle=-45, headlabel="False"] ;
5 [label="squared_error = 0.139\nsamples = 29\nvalue = 2.879", fillcolor="#efb387"] ;
4 -> 5 ;
6 [label="squared_error = 0.176\nsamples = 19\nvalue = 4.383", fillcolor="#e58139"] ;
4 -> 6 ;
}
